digraph Tree {
node [shape=box, fontname="helvetica"] ;
edge [fontname="helvetica"] ;
0 [label="X[0] <= 1.723\nentropy = 2.0\nsamples = 448\nvalue = [112, 112, 112, 112]"] ;
1 [label="X[0] <= -1.934\nentropy = 1.999\nsamples = 417\nvalue = [102, 110, 105, 100]"] ;
0 -> 1 [labeldistance=2.5, labelangle=45, headlabel="True"] ;
2 [label="X[1] <= -1.006\nentropy = 1.485\nsamples = 10\nvalue = [3, 0, 2, 5]"] ;
1 -> 2 ;
3 [label="entropy = 0.0\nsamples = 3\nvalue = [3, 0, 0, 0]"] ;
2 -> 3 ;
4 [label="X[1] <= -0.126\nentropy = 0.863\nsamples = 7\nvalue = [0, 0, 2, 5]"] ;
2 -> 4 ;
5 [label="entropy = 0.0\nsamples = 5\nvalue = [0, 0, 0, 5]"] ;
4 -> 5 ;
6 [label="entropy = 0.0\nsamples = 2\nvalue = [0, 0, 2, 0]"] ;
4 -> 6 ;
7 [label="X[0] <= -1.698\nentropy = 1.998\nsamples = 407\nvalue = [99, 110, 103, 95]"] ;
1 -> 7 ;
8 [label="X[1] <= 0.91\nentropy = 1.791\nsamples = 24\nvalue = [2, 9, 4, 9]"] ;
7 -> 8 ;
9 [label="X[1] <= -0.087\nentropy = 1.338\nsamples = 15\nvalue = [2, 0, 4, 9]"] ;
8 -> 9 ;
10 [label="X[1] <= -0.886\nentropy = 0.722\nsamples = 10\nvalue = [2, 0, 0, 8]"] ;
9 -> 10 ;
11 [label="X[0] <= -1.892\nentropy = 0.918\nsamples = 3\nvalue = [2, 0, 0, 1]"] ;
10 -> 11 ;
12 [label="entropy = 0.0\nsamples = 1\nvalue = [0, 0, 0, 1]"] ;
11 -> 12 ;
13 [label="entropy = 0.0\nsamples = 2\nvalue = [2, 0, 0, 0]"] ;
11 -> 13 ;
14 [label="entropy = 0.0\nsamples = 7\nvalue = [0, 0, 0, 7]"] ;
10 -> 14 ;
15 [label="X[0] <= -1.874\nentropy = 0.722\nsamples = 5\nvalue = [0, 0, 4, 1]"] ;
9 -> 15 ;
16 [label="X[1] <= -0.017\nentropy = 1.0\nsamples = 2\nvalue = [0, 0, 1, 1]"] ;
15 -> 16 ;
17 [label="entropy = 0.0\nsamples = 1\nvalue = [0, 0, 1, 0]"] ;
16 -> 17 ;
18 [label="entropy = 0.0\nsamples = 1\nvalue = [0, 0, 0, 1]"] ;
16 -> 18 ;
19 [label="entropy = 0.0\nsamples = 3\nvalue = [0, 0, 3, 0]"] ;
15 -> 19 ;
20 [label="entropy = 0.0\nsamples = 9\nvalue = [0, 9, 0, 0]"] ;
8 -> 20 ;
21 [label="X[1] <= 0.374\nentropy = 1.997\nsamples = 383\nvalue = [97, 101, 99, 86]"] ;
7 -> 21 ;
22 [label="X[0] <= -0.136\nentropy = 1.97\nsamples = 233\nvalue = [65, 71, 57, 40]"] ;
21 -> 22 ;
23 [label="X[1] <= -1.04\nentropy = 1.734\nsamples = 100\nvalue = [50, 19, 8, 23]"] ;
22 -> 23 ;
24 [label="X[0] <= -1.111\nentropy = 0.989\nsamples = 41\nvalue = [23, 18, 0, 0]"] ;
23 -> 24 ;
25 [label="entropy = 0.0\nsamples = 19\nvalue = [19, 0, 0, 0]"] ;
24 -> 25 ;
26 [label="X[0] <= -0.846\nentropy = 0.684\nsamples = 22\nvalue = [4, 18, 0, 0]"] ;
24 -> 26 ;
27 [label="X[0] <= -0.996\nentropy = 0.991\nsamples = 9\nvalue = [4, 5, 0, 0]"] ;
26 -> 27 ;
28 [label="entropy = 0.0\nsamples = 3\nvalue = [0, 3, 0, 0]"] ;
27 -> 28 ;
29 [label="X[1] <= -1.45\nentropy = 0.918\nsamples = 6\nvalue = [4, 2, 0, 0]"] ;
27 -> 29 ;
30 [label="entropy = 0.0\nsamples = 3\nvalue = [3, 0, 0, 0]"] ;
29 -> 30 ;
31 [label="X[0] <= -0.964\nentropy = 0.918\nsamples = 3\nvalue = [1, 2, 0, 0]"] ;
29 -> 31 ;
32 [label="entropy = 0.0\nsamples = 1\nvalue = [1, 0, 0, 0]"] ;
31 -> 32 ;
33 [label="entropy = 0.0\nsamples = 2\nvalue = [0, 2, 0, 0]"] ;
31 -> 33 ;
34 [label="entropy = 0.0\nsamples = 13\nvalue = [0, 13, 0, 0]"] ;
26 -> 34 ;
35 [label="X[0] <= -1.08\nentropy = 1.536\nsamples = 59\nvalue = [27, 1, 8, 23]"] ;
23 -> 35 ;
36 [label="X[1] <= -0.102\nentropy = 0.934\nsamples = 20\nvalue = [0, 0, 7, 13]"] ;
35 -> 36 ;
37 [label="entropy = 0.0\nsamples = 12\nvalue = [0, 0, 0, 12]"] ;
36 -> 37 ;
38 [label="X[0] <= -1.184\nentropy = 0.544\nsamples = 8\nvalue = [0, 0, 7, 1]"] ;
36 -> 38 ;
39 [label="entropy = 0.0\nsamples = 6\nvalue = [0, 0, 6, 0]"] ;
38 -> 39 ;
40 [label="X[1] <= 0.131\nentropy = 1.0\nsamples = 2\nvalue = [0, 0, 1, 1]"] ;
38 -> 40 ;
41 [label="entropy = 0.0\nsamples = 1\nvalue = [0, 0, 0, 1]"] ;
40 -> 41 ;
42 [label="entropy = 0.0\nsamples = 1\nvalue = [0, 0, 1, 0]"] ;
40 -> 42 ;
43 [label="X[1] <= -0.072\nentropy = 1.142\nsamples = 39\nvalue = [27, 1, 1, 10]"] ;
35 -> 43 ;
44 [label="X[1] <= -0.972\nentropy = 0.455\nsamples = 27\nvalue = [25, 1, 0, 1]"] ;
43 -> 44 ;
45 [label="entropy = 0.0\nsamples = 1\nvalue = [0, 0, 0, 1]"] ;
44 -> 45 ;
46 [label="X[1] <= -0.79\nentropy = 0.235\nsamples = 26\nvalue = [25, 1, 0, 0]"] ;
44 -> 46 ;
47 [label="X[1] <= -0.833\nentropy = 0.722\nsamples = 5\nvalue = [4, 1, 0, 0]"] ;
46 -> 47 ;
48 [label="entropy = 0.0\nsamples = 4\nvalue = [4, 0, 0, 0]"] ;
47 -> 48 ;
49 [label="entropy = 0.0\nsamples = 1\nvalue = [0, 1, 0, 0]"] ;
47 -> 49 ;
50 [label="entropy = 0.0\nsamples = 21\nvalue = [21, 0, 0, 0]"] ;
46 -> 50 ;
51 [label="X[0] <= -0.89\nentropy = 1.041\nsamples = 12\nvalue = [2, 0, 1, 9]"] ;
43 -> 51 ;
52 [label="X[1] <= 0.168\nentropy = 1.0\nsamples = 2\nvalue = [1, 0, 1, 0]"] ;
51 -> 52 ;
53 [label="entropy = 0.0\nsamples = 1\nvalue = [1, 0, 0, 0]"] ;
52 -> 53 ;
54 [label="entropy = 0.0\nsamples = 1\nvalue = [0, 0, 1, 0]"] ;
52 -> 54 ;
55 [label="X[1] <= 0.093\nentropy = 0.469\nsamples = 10\nvalue = [1, 0, 0, 9]"] ;
51 -> 55 ;
56 [label="X[1] <= 0.041\nentropy = 0.918\nsamples = 3\nvalue = [1, 0, 0, 2]"] ;
55 -> 56 ;
57 [label="entropy = 0.0\nsamples = 2\nvalue = [0, 0, 0, 2]"] ;
56 -> 57 ;
58 [label="entropy = 0.0\nsamples = 1\nvalue = [1, 0, 0, 0]"] ;
56 -> 58 ;
59 [label="entropy = 0.0\nsamples = 7\nvalue = [0, 0, 0, 7]"] ;
55 -> 59 ;
60 [label="X[1] <= -0.906\nentropy = 1.795\nsamples = 133\nvalue = [15, 52, 49, 17]"] ;
22 -> 60 ;
61 [label="X[0] <= 1.045\nentropy = 1.413\nsamples = 59\nvalue = [0, 10, 33, 16]"] ;
60 -> 61 ;
62 [label="X[0] <= 0.079\nentropy = 0.821\nsamples = 39\nvalue = [0, 10, 29, 0]"] ;
61 -> 62 ;
63 [label="X[1] <= -1.842\nentropy = 0.89\nsamples = 13\nvalue = [0, 9, 4, 0]"] ;
62 -> 63 ;
64 [label="entropy = 0.0\nsamples = 5\nvalue = [0, 5, 0, 0]"] ;
63 -> 64 ;
65 [label="X[0] <= -0.073\nentropy = 1.0\nsamples = 8\nvalue = [0, 4, 4, 0]"] ;
63 -> 65 ;
66 [label="entropy = 0.0\nsamples = 3\nvalue = [0, 3, 0, 0]"] ;
65 -> 66 ;
67 [label="X[1] <= -1.68\nentropy = 0.722\nsamples = 5\nvalue = [0, 1, 4, 0]"] ;
65 -> 67 ;
68 [label="X[1] <= -1.806\nentropy = 1.0\nsamples = 2\nvalue = [0, 1, 1, 0]"] ;
67 -> 68 ;
69 [label="entropy = 0.0\nsamples = 1\nvalue = [0, 0, 1, 0]"] ;
68 -> 69 ;
70 [label="entropy = 0.0\nsamples = 1\nvalue = [0, 1, 0, 0]"] ;
68 -> 70 ;
71 [label="entropy = 0.0\nsamples = 3\nvalue = [0, 0, 3, 0]"] ;
67 -> 71 ;
72 [label="X[1] <= -0.987\nentropy = 0.235\nsamples = 26\nvalue = [0, 1, 25, 0]"] ;
62 -> 72 ;
73 [label="entropy = 0.0\nsamples = 25\nvalue = [0, 0, 25, 0]"] ;
72 -> 73 ;
74 [label="entropy = 0.0\nsamples = 1\nvalue = [0, 1, 0, 0]"] ;
72 -> 74 ;
75 [label="X[1] <= -1.007\nentropy = 0.722\nsamples = 20\nvalue = [0, 0, 4, 16]"] ;
61 -> 75 ;
76 [label="entropy = 0.0\nsamples = 16\nvalue = [0, 0, 0, 16]"] ;
75 -> 76 ;
77 [label="entropy = 0.0\nsamples = 4\nvalue = [0, 0, 4, 0]"] ;
75 -> 77 ;
78 [label="X[0] <= 0.919\nentropy = 1.492\nsamples = 74\nvalue = [15, 42, 16, 1]"] ;
60 -> 78 ;
79 [label="X[1] <= -0.113\nentropy = 1.097\nsamples = 39\nvalue = [14, 24, 0, 1]"] ;
78 -> 79 ;
80 [label="X[0] <= -0.052\nentropy = 0.276\nsamples = 21\nvalue = [1, 20, 0, 0]"] ;
79 -> 80 ;
81 [label="entropy = 0.0\nsamples = 1\nvalue = [1, 0, 0, 0]"] ;
80 -> 81 ;
82 [label="entropy = 0.0\nsamples = 20\nvalue = [0, 20, 0, 0]"] ;
80 -> 82 ;
83 [label="X[0] <= -0.036\nentropy = 1.053\nsamples = 18\nvalue = [13, 4, 0, 1]"] ;
79 -> 83 ;
84 [label="entropy = 0.0\nsamples = 1\nvalue = [0, 0, 0, 1]"] ;
83 -> 84 ;
85 [label="X[1] <= 0.129\nentropy = 0.787\nsamples = 17\nvalue = [13, 4, 0, 0]"] ;
83 -> 85 ;
86 [label="X[0] <= 0.493\nentropy = 0.991\nsamples = 9\nvalue = [5, 4, 0, 0]"] ;
85 -> 86 ;
87 [label="X[1] <= -0.061\nentropy = 0.918\nsamples = 6\nvalue = [2, 4, 0, 0]"] ;
86 -> 87 ;
88 [label="entropy = 0.0\nsamples = 2\nvalue = [2, 0, 0, 0]"] ;
87 -> 88 ;
89 [label="entropy = 0.0\nsamples = 4\nvalue = [0, 4, 0, 0]"] ;
87 -> 89 ;
90 [label="entropy = 0.0\nsamples = 3\nvalue = [3, 0, 0, 0]"] ;
86 -> 90 ;
91 [label="entropy = 0.0\nsamples = 8\nvalue = [8, 0, 0, 0]"] ;
85 -> 91 ;
92 [label="X[1] <= 0.064\nentropy = 1.156\nsamples = 35\nvalue = [1, 18, 16, 0]"] ;
78 -> 92 ;
93 [label="X[0] <= 1.141\nentropy = 0.629\nsamples = 19\nvalue = [0, 3, 16, 0]"] ;
92 -> 93 ;
94 [label="X[0] <= 0.979\nentropy = 0.954\nsamples = 8\nvalue = [0, 3, 5, 0]"] ;
93 -> 94 ;
95 [label="entropy = 0.0\nsamples = 3\nvalue = [0, 0, 3, 0]"] ;
94 -> 95 ;
96 [label="X[1] <= -0.042\nentropy = 0.971\nsamples = 5\nvalue = [0, 3, 2, 0]"] ;
94 -> 96 ;
97 [label="X[1] <= -0.519\nentropy = 0.811\nsamples = 4\nvalue = [0, 3, 1, 0]"] ;
96 -> 97 ;
98 [label="entropy = 1.0\nsamples = 2\nvalue = [0, 1, 1, 0]"] ;
97 -> 98 ;
99 [label="entropy = 0.0\nsamples = 2\nvalue = [0, 2, 0, 0]"] ;
97 -> 99 ;
100 [label="entropy = 0.0\nsamples = 1\nvalue = [0, 0, 1, 0]"] ;
96 -> 100 ;
101 [label="entropy = 0.0\nsamples = 11\nvalue = [0, 0, 11, 0]"] ;
93 -> 101 ;
102 [label="X[0] <= 1.058\nentropy = 0.337\nsamples = 16\nvalue = [1, 15, 0, 0]"] ;
92 -> 102 ;
103 [label="entropy = 0.0\nsamples = 1\nvalue = [1, 0, 0, 0]"] ;
102 -> 103 ;
104 [label="entropy = 0.0\nsamples = 15\nvalue = [0, 15, 0, 0]"] ;
102 -> 104 ;
105 [label="X[0] <= 0.017\nentropy = 1.977\nsamples = 150\nvalue = [32, 30, 42, 46]"] ;
21 -> 105 ;
106 [label="X[0] <= -0.973\nentropy = 1.48\nsamples = 79\nvalue = [0, 19, 41, 19]"] ;
105 -> 106 ;
107 [label="X[1] <= 1.018\nentropy = 0.974\nsamples = 32\nvalue = [0, 19, 13, 0]"] ;
106 -> 107 ;
108 [label="entropy = 0.0\nsamples = 12\nvalue = [0, 0, 12, 0]"] ;
107 -> 108 ;
109 [label="X[0] <= -1.556\nentropy = 0.286\nsamples = 20\nvalue = [0, 19, 1, 0]"] ;
107 -> 109 ;
110 [label="X[1] <= 1.385\nentropy = 0.918\nsamples = 3\nvalue = [0, 2, 1, 0]"] ;
109 -> 110 ;
111 [label="entropy = 0.0\nsamples = 1\nvalue = [0, 0, 1, 0]"] ;
110 -> 111 ;
112 [label="entropy = 0.0\nsamples = 2\nvalue = [0, 2, 0, 0]"] ;
110 -> 112 ;
113 [label="entropy = 0.0\nsamples = 17\nvalue = [0, 17, 0, 0]"] ;
109 -> 113 ;
114 [label="X[1] <= 0.853\nentropy = 0.973\nsamples = 47\nvalue = [0, 0, 28, 19]"] ;
106 -> 114 ;
115 [label="entropy = 0.0\nsamples = 15\nvalue = [0, 0, 0, 15]"] ;
114 -> 115 ;
116 [label="X[1] <= 1.246\nentropy = 0.544\nsamples = 32\nvalue = [0, 0, 28, 4]"] ;
114 -> 116 ;
117 [label="X[1] <= 1.227\nentropy = 0.863\nsamples = 14\nvalue = [0, 0, 10, 4]"] ;
116 -> 117 ;
118 [label="X[1] <= 1.019\nentropy = 0.779\nsamples = 13\nvalue = [0, 0, 10, 3]"] ;
117 -> 118 ;
119 [label="X[1] <= 0.977\nentropy = 0.985\nsamples = 7\nvalue = [0, 0, 4, 3]"] ;
118 -> 119 ;
120 [label="entropy = 0.0\nsamples = 3\nvalue = [0, 0, 3, 0]"] ;
119 -> 120 ;
121 [label="X[0] <= -0.539\nentropy = 0.811\nsamples = 4\nvalue = [0, 0, 1, 3]"] ;
119 -> 121 ;
122 [label="entropy = 1.0\nsamples = 2\nvalue = [0, 0, 1, 1]"] ;
121 -> 122 ;
123 [label="entropy = 0.0\nsamples = 2\nvalue = [0, 0, 0, 2]"] ;
121 -> 123 ;
124 [label="entropy = 0.0\nsamples = 6\nvalue = [0, 0, 6, 0]"] ;
118 -> 124 ;
125 [label="entropy = 0.0\nsamples = 1\nvalue = [0, 0, 0, 1]"] ;
117 -> 125 ;
126 [label="entropy = 0.0\nsamples = 18\nvalue = [0, 0, 18, 0]"] ;
116 -> 126 ;
127 [label="X[0] <= 1.052\nentropy = 1.552\nsamples = 71\nvalue = [32, 11, 1, 27]"] ;
105 -> 127 ;
128 [label="X[1] <= 0.867\nentropy = 1.21\nsamples = 44\nvalue = [15, 1, 1, 27]"] ;
127 -> 128 ;
129 [label="X[0] <= 0.936\nentropy = 0.414\nsamples = 12\nvalue = [11, 1, 0, 0]"] ;
128 -> 129 ;
130 [label="entropy = 0.0\nsamples = 11\nvalue = [11, 0, 0, 0]"] ;
129 -> 130 ;
131 [label="entropy = 0.0\nsamples = 1\nvalue = [0, 1, 0, 0]"] ;
129 -> 131 ;
132 [label="X[0] <= 0.082\nentropy = 0.738\nsamples = 32\nvalue = [4, 0, 1, 27]"] ;
128 -> 132 ;
133 [label="entropy = 0.0\nsamples = 1\nvalue = [0, 0, 1, 0]"] ;
132 -> 133 ;
134 [label="X[1] <= 1.066\nentropy = 0.555\nsamples = 31\nvalue = [4, 0, 0, 27]"] ;
132 -> 134 ;
135 [label="X[1] <= 0.982\nentropy = 1.0\nsamples = 6\nvalue = [3, 0, 0, 3]"] ;
134 -> 135 ;
136 [label="X[0] <= 0.475\nentropy = 0.811\nsamples = 4\nvalue = [1, 0, 0, 3]"] ;
135 -> 136 ;
137 [label="entropy = 0.0\nsamples = 1\nvalue = [1, 0, 0, 0]"] ;
136 -> 137 ;
138 [label="entropy = 0.0\nsamples = 3\nvalue = [0, 0, 0, 3]"] ;
136 -> 138 ;
139 [label="entropy = 0.0\nsamples = 2\nvalue = [2, 0, 0, 0]"] ;
135 -> 139 ;
140 [label="X[0] <= 0.956\nentropy = 0.242\nsamples = 25\nvalue = [1, 0, 0, 24]"] ;
134 -> 140 ;
141 [label="entropy = 0.0\nsamples = 23\nvalue = [0, 0, 0, 23]"] ;
140 -> 141 ;
142 [label="X[1] <= 1.646\nentropy = 1.0\nsamples = 2\nvalue = [1, 0, 0, 1]"] ;
140 -> 142 ;
143 [label="entropy = 0.0\nsamples = 1\nvalue = [0, 0, 0, 1]"] ;
142 -> 143 ;
144 [label="entropy = 0.0\nsamples = 1\nvalue = [1, 0, 0, 0]"] ;
142 -> 144 ;
145 [label="X[1] <= 1.115\nentropy = 0.951\nsamples = 27\nvalue = [17, 10, 0, 0]"] ;
127 -> 145 ;
146 [label="X[0] <= 1.19\nentropy = 0.65\nsamples = 12\nvalue = [2, 10, 0, 0]"] ;
145 -> 146 ;
147 [label="entropy = 0.0\nsamples = 2\nvalue = [2, 0, 0, 0]"] ;
146 -> 147 ;
148 [label="entropy = 0.0\nsamples = 10\nvalue = [0, 10, 0, 0]"] ;
146 -> 148 ;
149 [label="entropy = 0.0\nsamples = 15\nvalue = [15, 0, 0, 0]"] ;
145 -> 149 ;
150 [label="X[1] <= -1.039\nentropy = 1.796\nsamples = 31\nvalue = [10, 2, 7, 12]"] ;
0 -> 150 [labeldistance=2.5, labelangle=-45, headlabel="False"] ;
151 [label="entropy = 0.0\nsamples = 12\nvalue = [0, 0, 0, 12]"] ;
150 -> 151 ;
152 [label="X[1] <= 1.029\nentropy = 1.36\nsamples = 19\nvalue = [10, 2, 7, 0]"] ;
150 -> 152 ;
153 [label="X[1] <= 0.333\nentropy = 0.764\nsamples = 9\nvalue = [0, 2, 7, 0]"] ;
152 -> 153 ;
154 [label="entropy = 0.0\nsamples = 7\nvalue = [0, 0, 7, 0]"] ;
153 -> 154 ;
155 [label="entropy = 0.0\nsamples = 2\nvalue = [0, 2, 0, 0]"] ;
153 -> 155 ;
156 [label="entropy = 0.0\nsamples = 10\nvalue = [10, 0, 0, 0]"] ;
152 -> 156 ;
}
